%YAML:1.0
---
opencv_ml_svm:
   format: 3
   svmType: C_SVC
   kernel:
      type: RBF
      gamma: 5.3830000000000000e+00
   C: 2.6699999999999999e+00
   term_criteria: { epsilon:1.1920928955078125e-07, iterations:1000 }
   var_count: 400
   class_count: 13
   class_labels: !!opencv-matrix
      rows: 13
      cols: 1
      dt: i
      data: [ 0, 1, 2, 3, 4, 5, 6, 7, 8, 9, 10, 11, 12 ]
   sv_total: 13
   support_vectors:
      - [ 0., 0., 0., 0., 143., 255., 255., 255., 255., 255., 255., 255.,
          255., 255., 255., 143., 0., 0., 0., 0., 0., 0., 143., 255.,
          255., 255., 255., 255., 255., 255., 255., 255., 255., 255.,
          255., 255., 255., 143., 0., 0., 0., 255., 255., 255., 255.,
          255., 255., 255., 255., 255., 255., 255., 255., 255., 255.,
          255., 255., 255., 226., 0., 112., 255., 255., 255., 255., 255.,
          0., 0., 0., 0., 0., 0., 0., 0., 255., 255., 255., 255., 255.,
          0., 178., 255., 255., 255., 255., 0., 0., 0., 0., 0., 0., 0.,
          0., 0., 0., 255., 255., 255., 255., 178., 255., 255., 255.,
          255., 245., 0., 0., 0., 0., 0., 0., 0., 0., 0., 0., 178., 255.,
          255., 255., 255., 255., 255., 255., 255., 178., 0., 0., 0., 0.,
          0., 0., 0., 0., 0., 0., 178., 255., 255., 255., 255., 255.,
          255., 255., 255., 178., 0., 0., 0., 0., 0., 0., 0., 0., 0., 0.,
          0., 255., 255., 255., 255., 255., 255., 255., 255., 0., 0., 0.,
          0., 0., 0., 0., 0., 0., 0., 0., 0., 255., 255., 255., 255.,
          255., 255., 255., 255., 0., 0., 0., 0., 0., 0., 0., 0., 0., 0.,
          0., 0., 255., 255., 255., 255., 255., 255., 255., 255., 0., 0.,
          0., 0., 0., 0., 0., 0., 0., 0., 0., 0., 255., 255., 255., 255.,
          255., 255., 255., 255., 0., 0., 0., 0., 0., 0., 0., 0., 0., 0.,
          0., 0., 255., 255., 255., 255., 255., 255., 255., 255., 178.,
          0., 0., 0., 0., 0., 0., 0., 0., 0., 0., 178., 255., 255., 255.,
          255., 255., 255., 255., 255., 178., 0., 0., 0., 0., 0., 0., 0.,
          0., 0., 0., 178., 255., 255., 255., 255., 255., 255., 255.,
          255., 178., 0., 0., 0., 0., 0., 0., 0., 0., 0., 0., 178., 255.,
          255., 255., 255., 178., 255., 255., 255., 255., 0., 0., 0., 0.,
          0., 0., 0., 0., 0., 0., 255., 255., 255., 255., 178., 0., 255.,
          255., 255., 255., 255., 0., 0., 0., 0., 0., 0., 0., 0., 255.,
          255., 255., 255., 255., 112., 0., 226., 255., 255., 255., 255.,
          255., 255., 255., 255., 255., 255., 255., 255., 255., 255.,
          255., 255., 255., 0., 0., 0., 143., 255., 255., 255., 255.,
          255., 255., 255., 255., 255., 255., 255., 255., 255., 255.,
          143., 0., 0., 0., 0., 0., 0., 143., 255., 255., 255., 255.,
          255., 255., 255., 255., 255., 255., 143., 0., 0., 0., 0. ]
      - [ 0., 0., 0., 0., 0., 0., 0., 0., 0., 0., 69., 255., 255., 255.,
          255., 255., 255., 255., 255., 70., 0., 0., 0., 0., 0., 0., 0.,
          43., 255., 255., 255., 255., 255., 255., 255., 255., 255.,
          255., 255., 255., 0., 0., 0., 0., 0., 193., 255., 255., 255.,
          255., 255., 255., 255., 255., 255., 255., 255., 255., 255.,
          255., 0., 0., 167., 255., 255., 255., 255., 255., 255., 255.,
          255., 255., 255., 255., 255., 255., 255., 255., 255., 255.,
          255., 255., 255., 255., 255., 255., 255., 255., 255., 246.,
          217., 0., 0., 255., 255., 255., 255., 255., 255., 255., 255.,
          255., 255., 255., 255., 255., 255., 228., 12., 0., 0., 0., 0.,
          255., 255., 255., 255., 255., 255., 255., 0., 95., 115., 115.,
          115., 0., 0., 0., 0., 0., 0., 0., 0., 255., 255., 255., 255.,
          255., 255., 255., 0., 0., 0., 0., 0., 0., 0., 0., 0., 0., 0.,
          0., 0., 255., 255., 255., 255., 255., 255., 70., 0., 0., 0.,
          0., 0., 0., 0., 0., 0., 0., 0., 0., 0., 255., 255., 255., 255.,
          255., 255., 70., 0., 0., 0., 0., 0., 0., 0., 0., 0., 0., 0.,
          0., 0., 255., 255., 255., 255., 255., 255., 70., 0., 0., 0.,
          0., 0., 0., 0., 0., 0., 0., 0., 0., 0., 255., 255., 255., 255.,
          255., 255., 70., 0., 0., 0., 0., 0., 0., 0., 0., 0., 0., 0.,
          0., 0., 255., 255., 255., 255., 255., 255., 70., 0., 0., 0.,
          0., 0., 0., 0., 0., 0., 0., 0., 0., 167., 255., 255., 255.,
          255., 255., 255., 70., 0., 0., 0., 0., 0., 0., 0., 0., 0., 0.,
          0., 0., 223., 255., 255., 255., 255., 255., 255., 70., 0., 0.,
          0., 0., 0., 0., 0., 0., 0., 0., 0., 0., 223., 255., 255., 255.,
          255., 255., 255., 70., 0., 0., 0., 0., 0., 0., 0., 0., 0., 0.,
          0., 0., 223., 255., 255., 255., 255., 255., 255., 70., 0., 0.,
          0., 0., 0., 0., 0., 0., 0., 0., 0., 0., 223., 255., 255., 255.,
          255., 255., 255., 70., 0., 0., 0., 0., 0., 0., 0., 0., 0., 0.,
          0., 0., 223., 255., 255., 255., 255., 255., 255., 70., 0., 0.,
          0., 0., 0., 0., 0., 0., 0., 0., 0., 0., 223., 255., 255., 255.,
          255., 255., 255., 70., 0., 0., 0., 0., 0., 0., 0., 0., 0., 0.,
          0., 0., 0., 255., 255., 255., 255., 255., 210., 0. ]
      - [ 0., 0., 0., 89., 255., 255., 255., 255., 255., 255., 255.,
          255., 255., 255., 89., 0., 0., 0., 0., 0., 8., 255., 255.,
          255., 255., 255., 255., 255., 255., 255., 255., 255., 255.,
          255., 255., 255., 255., 2., 0., 0., 255., 255., 255., 255.,
          255., 255., 255., 255., 255., 255., 255., 255., 255., 255.,
          255., 255., 255., 255., 167., 0., 212., 255., 255., 255., 140.,
          0., 0., 0., 0., 0., 0., 0., 0., 140., 255., 255., 255., 255.,
          255., 0., 0., 0., 0., 0., 0., 0., 0., 0., 0., 0., 0., 0., 0.,
          0., 32., 255., 255., 255., 255., 159., 0., 0., 0., 0., 0., 0.,
          0., 0., 0., 0., 0., 0., 0., 0., 0., 255., 255., 255., 255.,
          159., 0., 0., 0., 0., 0., 0., 0., 0., 0., 0., 0., 0., 0., 0.,
          32., 255., 255., 255., 255., 159., 0., 0., 0., 0., 0., 0., 0.,
          0., 0., 0., 0., 0., 0., 56., 255., 255., 255., 255., 255., 0.,
          0., 0., 0., 0., 0., 0., 0., 0., 0., 0., 0., 91., 255., 255.,
          255., 255., 255., 255., 11., 0., 0., 0., 0., 0., 0., 0., 0.,
          0., 0., 244., 255., 255., 255., 255., 255., 255., 255., 11.,
          0., 0., 0., 0., 0., 0., 0., 0., 110., 255., 255., 255., 255.,
          255., 255., 255., 244., 104., 0., 0., 0., 0., 0., 0., 0., 0.,
          164., 255., 255., 255., 255., 255., 255., 255., 242., 0., 0.,
          0., 0., 0., 0., 0., 0., 0., 0., 255., 255., 255., 255., 255.,
          255., 255., 56., 0., 0., 0., 0., 0., 0., 0., 0., 0., 0., 0.,
          255., 255., 255., 255., 255., 212., 53., 0., 0., 0., 0., 0.,
          0., 0., 0., 0., 0., 0., 0., 228., 255., 255., 255., 255., 0.,
          0., 0., 0., 0., 0., 0., 0., 0., 0., 0., 0., 0., 0., 135., 255.,
          255., 255., 255., 65., 0., 0., 0., 0., 0., 0., 0., 0., 0., 0.,
          0., 0., 0., 0., 159., 255., 255., 255., 255., 32., 0., 0., 0.,
          0., 0., 0., 0., 0., 0., 0., 0., 0., 0., 0., 159., 255., 255.,
          255., 255., 255., 255., 255., 255., 255., 255., 255., 255.,
          255., 255., 255., 255., 255., 255., 40., 159., 255., 255.,
          255., 255., 255., 255., 255., 255., 255., 255., 255., 255.,
          255., 255., 255., 255., 255., 255., 250., 56., 255., 255.,
          255., 255., 255., 255., 255., 255., 255., 255., 255., 255.,
          255., 255., 255., 255., 255., 255., 159. ]
      - [ 179., 255., 255., 255., 255., 255., 255., 255., 255., 255.,
          255., 255., 255., 255., 255., 255., 255., 255., 106., 0., 178.,
          255., 255., 255., 255., 255., 255., 255., 255., 255., 255.,
          255., 255., 255., 255., 255., 255., 255., 255., 0., 45., 255.,
          255., 255., 255., 255., 255., 255., 255., 255., 255., 255.,
          255., 255., 255., 255., 255., 255., 255., 0., 0., 0., 0., 0.,
          0., 0., 0., 0., 0., 0., 0., 11., 255., 255., 255., 255., 255.,
          255., 14., 0., 0., 0., 0., 0., 0., 0., 0., 0., 0., 0., 190.,
          255., 255., 255., 255., 255., 195., 0., 0., 0., 0., 0., 0., 0.,
          0., 0., 0., 0., 0., 255., 255., 255., 255., 255., 255., 11.,
          0., 0., 0., 0., 0., 0., 0., 0., 0., 0., 0., 197., 255., 255.,
          255., 255., 255., 129., 0., 0., 0., 0., 0., 0., 0., 0., 0., 0.,
          0., 0., 255., 255., 255., 255., 255., 255., 159., 6., 0., 0.,
          0., 0., 0., 0., 0., 0., 0., 0., 0., 178., 255., 255., 255.,
          255., 255., 255., 255., 255., 255., 242., 0., 0., 0., 0., 0.,
          0., 0., 0., 0., 0., 255., 255., 255., 255., 255., 255., 255.,
          255., 255., 255., 255., 127., 0., 0., 0., 0., 0., 0., 0., 0.,
          0., 0., 0., 0., 0., 17., 210., 255., 255., 255., 255., 255.,
          106., 0., 0., 0., 0., 0., 0., 0., 0., 0., 0., 0., 0., 0., 0.,
          0., 246., 255., 255., 255., 255., 9., 0., 0., 0., 0., 0., 0.,
          0., 0., 0., 0., 0., 0., 0., 0., 0., 255., 255., 255., 255.,
          178., 0., 0., 0., 0., 0., 0., 0., 0., 0., 0., 0., 0., 0., 0.,
          0., 178., 255., 255., 255., 255., 0., 0., 0., 0., 0., 0., 0.,
          0., 0., 0., 0., 0., 0., 0., 0., 190., 255., 255., 255., 244.,
          0., 0., 0., 0., 0., 0., 0., 0., 0., 0., 0., 0., 0., 0., 76.,
          255., 255., 255., 255., 179., 0., 0., 0., 0., 0., 0., 0., 0.,
          0., 0., 0., 0., 70., 255., 255., 255., 255., 255., 255., 0.,
          255., 255., 255., 255., 255., 255., 255., 255., 255., 255.,
          255., 255., 255., 255., 255., 255., 255., 223., 0., 0., 255.,
          255., 255., 255., 255., 255., 255., 255., 255., 255., 255.,
          255., 255., 255., 255., 255., 11., 0., 0., 0., 0., 89., 255.,
          255., 255., 255., 255., 255., 255., 255., 255., 255., 255.,
          106., 0., 0., 0., 0., 0., 0. ]
      - [ 0., 0., 0., 0., 0., 0., 0., 0., 0., 255., 255., 255., 172., 0.,
          0., 0., 0., 0., 0., 0., 0., 0., 0., 0., 0., 0., 0., 0., 255.,
          255., 255., 255., 255., 0., 0., 0., 0., 0., 0., 0., 0., 0., 0.,
          0., 0., 0., 0., 223., 255., 255., 255., 255., 32., 0., 0., 0.,
          0., 0., 0., 0., 0., 0., 0., 0., 0., 0., 129., 255., 255., 255.,
          255., 229., 0., 0., 0., 0., 0., 0., 0., 0., 0., 0., 0., 0., 0.,
          0., 255., 255., 255., 255., 255., 0., 0., 0., 0., 0., 0., 0.,
          0., 0., 0., 0., 0., 0., 0., 244., 255., 255., 255., 255., 11.,
          0., 0., 0., 0., 0., 0., 0., 0., 0., 0., 0., 0., 0., 174., 255.,
          255., 255., 255., 80., 0., 0., 0., 0., 0., 0., 0., 0., 0., 0.,
          0., 0., 0., 57., 255., 255., 255., 255., 198., 0., 0., 0., 0.,
          0., 0., 0., 0., 0., 0., 0., 0., 0., 0., 254., 255., 255., 255.,
          255., 1., 0., 0., 0., 0., 0., 0., 0., 0., 0., 0., 0., 0., 0.,
          210., 255., 255., 255., 255., 45., 0., 0., 0., 25., 255., 255.,
          255., 255., 0., 0., 0., 0., 0., 106., 255., 255., 255., 255.,
          149., 0., 0., 0., 0., 25., 255., 255., 255., 255., 0., 0., 0.,
          0., 0., 255., 255., 255., 255., 246., 0., 0., 0., 0., 0., 26.,
          255., 255., 255., 255., 0., 0., 0., 0., 236., 255., 255., 255.,
          255., 0., 0., 0., 0., 0., 0., 25., 255., 255., 255., 255., 0.,
          0., 0., 0., 255., 255., 255., 255., 255., 255., 255., 255.,
          255., 255., 255., 255., 255., 255., 255., 255., 255., 255.,
          255., 255., 255., 255., 255., 255., 255., 255., 255., 255.,
          255., 255., 255., 255., 255., 255., 255., 255., 255., 255.,
          255., 255., 27., 38., 38., 38., 38., 38., 38., 38., 38., 38.,
          38., 60., 255., 255., 255., 255., 38., 38., 38., 27., 0., 0.,
          0., 0., 0., 0., 0., 0., 0., 0., 0., 25., 255., 255., 255.,
          255., 0., 0., 0., 0., 0., 0., 0., 0., 0., 0., 0., 0., 0., 0.,
          0., 25., 255., 255., 255., 255., 0., 0., 0., 0., 0., 0., 0.,
          0., 0., 0., 0., 0., 0., 0., 0., 26., 255., 255., 255., 255.,
          0., 0., 0., 0., 0., 0., 0., 0., 0., 0., 0., 0., 0., 0., 0., 9.,
          255., 255., 255., 255., 0., 0., 0., 0. ]
      - [ 0., 0., 255., 255., 255., 255., 255., 255., 255., 255., 255.,
          255., 255., 255., 255., 255., 255., 255., 255., 55., 0., 185.,
          255., 255., 255., 255., 255., 255., 255., 255., 255., 255.,
          255., 255., 255., 255., 255., 255., 255., 147., 0., 185., 255.,
          255., 255., 255., 255., 255., 255., 255., 255., 255., 255.,
          255., 255., 255., 255., 255., 194., 0., 0., 185., 255., 255.,
          255., 255., 50., 0., 0., 0., 0., 0., 0., 0., 0., 0., 0., 0.,
          0., 0., 0., 185., 255., 255., 255., 255., 0., 0., 0., 0., 0.,
          0., 0., 0., 0., 0., 0., 0., 0., 0., 0., 255., 255., 255., 255.,
          255., 0., 0., 0., 0., 0., 0., 0., 0., 0., 0., 0., 0., 0., 0.,
          0., 255., 255., 255., 255., 255., 255., 255., 255., 255., 255.,
          248., 223., 0., 0., 0., 0., 0., 0., 0., 0., 255., 255., 255.,
          255., 255., 255., 255., 255., 255., 255., 255., 255., 255.,
          255., 255., 4., 0., 0., 0., 0., 185., 255., 255., 255., 255.,
          255., 255., 255., 255., 255., 255., 255., 255., 255., 255.,
          255., 235., 0., 0., 0., 0., 0., 0., 0., 0., 0., 0., 0., 0., 0.,
          50., 235., 255., 255., 255., 255., 255., 194., 0., 0., 0., 0.,
          0., 0., 0., 0., 0., 0., 0., 0., 0., 0., 17., 255., 255., 255.,
          255., 255., 147., 0., 0., 0., 0., 0., 0., 0., 0., 0., 0., 0.,
          0., 0., 0., 65., 255., 255., 255., 255., 147., 0., 0., 0., 0.,
          0., 0., 0., 0., 0., 0., 0., 0., 0., 0., 0., 255., 255., 255.,
          255., 255., 0., 0., 0., 0., 0., 0., 0., 0., 0., 0., 0., 0., 0.,
          0., 22., 255., 255., 255., 255., 147., 0., 0., 0., 0., 0., 0.,
          0., 0., 0., 0., 0., 0., 0., 0., 245., 255., 255., 255., 255.,
          147., 0., 0., 0., 0., 0., 0., 0., 0., 0., 0., 0., 0., 60.,
          255., 255., 255., 255., 255., 255., 0., 0., 0., 0., 0., 0., 0.,
          0., 0., 0., 0., 107., 255., 255., 255., 255., 255., 255., 255.,
          116., 0., 18., 255., 255., 255., 255., 255., 255., 255., 255.,
          255., 255., 255., 255., 255., 255., 255., 255., 0., 0., 0.,
          255., 255., 255., 255., 255., 255., 255., 255., 255., 255.,
          255., 255., 255., 255., 255., 71., 0., 0., 0., 0., 187., 255.,
          255., 255., 255., 255., 255., 255., 255., 107., 96., 0., 0.,
          0., 0., 0., 0., 0., 0., 0. ]
      - [ 0., 0., 0., 0., 0., 0., 0., 0., 0., 0., 22., 255., 255., 255.,
          248., 0., 0., 0., 0., 0., 0., 0., 0., 0., 0., 0., 0., 0., 0.,
          205., 255., 255., 255., 255., 249., 0., 0., 0., 0., 0., 0., 0.,
          0., 0., 0., 0., 0., 0., 255., 255., 255., 255., 255., 255., 0.,
          0., 0., 0., 0., 0., 0., 0., 0., 0., 0., 0., 68., 255., 255.,
          255., 255., 255., 84., 0., 0., 0., 0., 0., 0., 0., 0., 0., 0.,
          0., 0., 93., 255., 255., 255., 255., 255., 52., 0., 0., 0., 0.,
          0., 0., 0., 0., 0., 0., 0., 0., 149., 255., 255., 255., 255.,
          255., 0., 0., 0., 0., 0., 0., 0., 0., 0., 0., 0., 0., 0., 225.,
          255., 255., 255., 255., 182., 0., 0., 0., 0., 0., 0., 0., 0.,
          0., 0., 0., 0., 0., 159., 255., 255., 255., 255., 255., 255.,
          255., 255., 255., 255., 255., 159., 0., 0., 0., 0., 0., 0.,
          44., 255., 255., 255., 255., 255., 255., 255., 255., 255.,
          255., 255., 255., 255., 255., 255., 60., 0., 0., 0., 255.,
          255., 255., 255., 255., 255., 255., 255., 255., 255., 255.,
          255., 255., 255., 255., 255., 255., 71., 0., 185., 255., 255.,
          255., 255., 255., 18., 0., 0., 0., 0., 0., 0., 160., 255.,
          255., 255., 255., 255., 0., 255., 255., 255., 255., 255., 0.,
          0., 0., 0., 0., 0., 0., 0., 0., 6., 255., 255., 255., 255.,
          185., 255., 255., 255., 255., 121., 0., 0., 0., 0., 0., 0., 0.,
          0., 0., 0., 205., 255., 255., 255., 185., 255., 255., 255.,
          255., 0., 0., 0., 0., 0., 0., 0., 0., 0., 0., 0., 121., 255.,
          255., 255., 255., 255., 255., 255., 255., 121., 0., 0., 0., 0.,
          0., 0., 0., 0., 0., 0., 238., 255., 255., 255., 185., 211.,
          255., 255., 255., 255., 0., 0., 0., 0., 0., 0., 0., 0., 0., 6.,
          255., 255., 255., 255., 185., 0., 255., 255., 255., 255., 255.,
          55., 0., 0., 0., 0., 0., 0., 187., 255., 255., 255., 255.,
          255., 0., 0., 39., 255., 255., 255., 255., 255., 255., 255.,
          255., 255., 255., 255., 255., 255., 255., 255., 255., 0., 0.,
          0., 0., 20., 255., 255., 255., 255., 255., 255., 255., 255.,
          255., 255., 255., 255., 255., 255., 0., 0., 0., 0., 0., 0., 0.,
          0., 96., 255., 255., 255., 255., 255., 255., 255., 255., 96.,
          0., 0., 0., 0., 0. ]
      - [ 205., 255., 255., 255., 255., 255., 255., 255., 255., 255.,
          255., 255., 255., 255., 255., 255., 255., 255., 255., 205.,
          255., 255., 255., 255., 255., 255., 255., 255., 255., 255.,
          255., 255., 255., 255., 255., 255., 255., 255., 255., 255.,
          45., 255., 255., 255., 255., 255., 255., 255., 255., 255.,
          255., 255., 255., 255., 255., 255., 255., 255., 255., 255., 0.,
          0., 0., 0., 0., 0., 0., 0., 0., 0., 0., 0., 0., 0., 76., 255.,
          255., 255., 255., 178., 0., 0., 0., 0., 0., 0., 0., 0., 0., 0.,
          0., 0., 0., 233., 255., 255., 255., 255., 255., 0., 0., 0., 0.,
          0., 0., 0., 0., 0., 0., 0., 0., 0., 236., 255., 255., 255.,
          255., 255., 4., 0., 0., 0., 0., 0., 0., 0., 0., 0., 0., 0.,
          98., 255., 255., 255., 255., 255., 241., 0., 0., 0., 0., 0.,
          0., 0., 0., 0., 0., 0., 0., 121., 255., 255., 255., 255., 255.,
          57., 0., 0., 0., 0., 0., 0., 0., 0., 0., 0., 0., 0., 218.,
          255., 255., 255., 255., 255., 9., 0., 0., 0., 0., 0., 0., 0.,
          0., 0., 0., 0., 0., 83., 255., 255., 255., 255., 255., 0., 0.,
          0., 0., 0., 0., 0., 0., 0., 0., 0., 0., 0., 9., 255., 255.,
          255., 255., 246., 0., 0., 0., 0., 0., 0., 0., 0., 0., 0., 0.,
          0., 0., 0., 255., 255., 255., 255., 255., 0., 0., 0., 0., 0.,
          0., 0., 0., 0., 0., 0., 0., 0., 0., 0., 255., 255., 255., 255.,
          76., 0., 0., 0., 0., 0., 0., 0., 0., 0., 0., 0., 0., 0., 0.,
          178., 255., 255., 255., 255., 0., 0., 0., 0., 0., 0., 0., 0.,
          0., 0., 0., 0., 0., 0., 0., 255., 255., 255., 255., 179., 0.,
          0., 0., 0., 0., 0., 0., 0., 0., 0., 0., 0., 0., 0., 0., 255.,
          255., 255., 255., 27., 0., 0., 0., 0., 0., 0., 0., 0., 0., 0.,
          0., 0., 0., 0., 0., 255., 255., 255., 255., 0., 0., 0., 0., 0.,
          0., 0., 0., 0., 0., 0., 0., 0., 0., 0., 0., 255., 255., 255.,
          255., 0., 0., 0., 0., 0., 0., 0., 0., 0., 0., 0., 0., 0., 0.,
          0., 0., 255., 255., 255., 255., 0., 0., 0., 0., 0., 0., 0., 0.,
          0., 0., 0., 0., 0., 0., 0., 0., 255., 255., 255., 255., 0., 0.,
          0., 0., 0., 0., 0., 0., 0., 0., 0. ]
      - [ 0., 0., 0., 0., 29., 207., 255., 255., 255., 255., 255., 255.,
          255., 255., 207., 29., 0., 0., 0., 0., 0., 0., 16., 255., 255.,
          255., 255., 255., 255., 255., 255., 255., 255., 255., 255.,
          255., 255., 0., 0., 0., 0., 22., 255., 255., 255., 255., 255.,
          255., 255., 255., 255., 255., 255., 255., 255., 255., 255.,
          255., 22., 0., 0., 255., 255., 255., 255., 255., 86., 0., 0.,
          0., 0., 0., 0., 86., 255., 255., 255., 255., 255., 0., 0.,
          255., 255., 255., 255., 255., 0., 0., 0., 0., 0., 0., 0., 0.,
          255., 255., 255., 255., 255., 0., 0., 255., 255., 255., 255.,
          255., 0., 0., 0., 0., 0., 0., 0., 29., 255., 255., 255., 255.,
          255., 0., 0., 3., 255., 255., 255., 255., 255., 239., 0., 0.,
          0., 0., 239., 255., 255., 255., 255., 255., 25., 0., 0., 0.,
          48., 255., 255., 255., 255., 255., 255., 255., 255., 255.,
          255., 255., 255., 255., 255., 48., 0., 0., 0., 0., 0., 0.,
          159., 255., 255., 255., 255., 255., 255., 255., 255., 255.,
          255., 188., 0., 0., 0., 0., 0., 0., 0., 0., 255., 255., 255.,
          255., 255., 255., 255., 255., 255., 255., 255., 255., 29., 0.,
          0., 0., 0., 0., 239., 255., 255., 255., 255., 255., 255., 188.,
          188., 255., 255., 255., 255., 255., 255., 239., 0., 0., 0.,
          255., 255., 255., 255., 255., 239., 48., 0., 0., 0., 0., 48.,
          239., 255., 255., 255., 255., 255., 0., 178., 255., 255., 255.,
          255., 76., 0., 0., 0., 0., 0., 0., 0., 0., 48., 255., 255.,
          255., 255., 207., 255., 255., 255., 255., 178., 0., 0., 0., 0.,
          0., 0., 0., 0., 0., 0., 156., 255., 255., 255., 255., 255.,
          255., 255., 255., 0., 0., 0., 0., 0., 0., 0., 0., 0., 0., 0.,
          0., 255., 255., 255., 255., 255., 255., 255., 255., 178., 0.,
          0., 0., 0., 0., 0., 0., 0., 0., 0., 178., 255., 255., 255.,
          255., 178., 255., 255., 255., 255., 255., 0., 0., 0., 0., 0.,
          0., 0., 0., 255., 255., 255., 255., 255., 226., 0., 255., 255.,
          255., 255., 255., 255., 255., 255., 255., 255., 255., 255.,
          255., 255., 255., 255., 255., 255., 0., 0., 0., 143., 255.,
          255., 255., 255., 255., 255., 255., 255., 255., 255., 255.,
          255., 255., 255., 143., 0., 0., 0., 0., 0., 0., 96., 255.,
          255., 255., 255., 255., 255., 255., 255., 255., 255., 96., 0.,
          0., 0., 0. ]
      - [ 0., 0., 0., 0., 50., 251., 255., 255., 255., 255., 255., 255.,
          255., 255., 96., 0., 0., 0., 0., 0., 0., 0., 20., 255., 255.,
          255., 255., 255., 255., 255., 255., 255., 255., 255., 255.,
          255., 255., 0., 0., 0., 0., 39., 255., 255., 255., 255., 255.,
          255., 255., 255., 255., 255., 255., 255., 255., 255., 255.,
          255., 0., 0., 0., 255., 255., 255., 255., 255., 55., 0., 0.,
          0., 0., 0., 0., 187., 255., 255., 255., 255., 255., 0., 211.,
          255., 255., 255., 255., 0., 0., 0., 0., 0., 0., 0., 0., 0., 6.,
          255., 255., 255., 255., 185., 255., 255., 255., 255., 121., 0.,
          0., 0., 0., 0., 0., 0., 0., 0., 0., 238., 255., 255., 255.,
          185., 255., 255., 255., 255., 0., 0., 0., 0., 0., 0., 0., 0.,
          0., 0., 0., 121., 255., 255., 255., 255., 255., 255., 255.,
          255., 121., 0., 0., 0., 0., 0., 0., 0., 0., 0., 0., 205., 255.,
          255., 255., 185., 229., 255., 255., 255., 255., 2., 0., 0., 0.,
          0., 0., 0., 0., 0., 99., 255., 255., 255., 255., 185., 0.,
          255., 255., 255., 255., 255., 160., 4., 0., 0., 0., 0., 32.,
          255., 255., 255., 255., 255., 255., 0., 0., 71., 255., 255.,
          255., 255., 255., 255., 255., 255., 255., 255., 255., 255.,
          255., 255., 255., 255., 255., 0., 0., 0., 60., 255., 255.,
          255., 255., 255., 255., 255., 255., 255., 255., 255., 255.,
          255., 255., 255., 17., 0., 0., 0., 0., 0., 0., 155., 200.,
          255., 255., 255., 255., 255., 255., 255., 255., 255., 255., 0.,
          0., 0., 0., 0., 0., 0., 0., 0., 0., 0., 0., 0., 57., 255.,
          255., 255., 255., 255., 17., 0., 0., 0., 0., 0., 0., 0., 0.,
          0., 0., 0., 0., 173., 255., 255., 255., 255., 255., 17., 0.,
          0., 0., 0., 0., 0., 0., 0., 0., 0., 0., 0., 190., 255., 255.,
          255., 255., 255., 0., 0., 0., 0., 0., 0., 0., 0., 0., 0., 0.,
          0., 41., 255., 255., 255., 255., 255., 243., 0., 0., 0., 0.,
          0., 0., 0., 0., 0., 0., 0., 0., 31., 255., 255., 255., 255.,
          255., 233., 0., 0., 0., 0., 0., 0., 0., 0., 0., 0., 0., 0., 0.,
          255., 255., 255., 255., 255., 25., 0., 0., 0., 0., 0., 0., 0.,
          0., 0., 0., 0., 0., 0., 0., 251., 255., 255., 203., 0., 0., 0.,
          0., 0., 0., 0., 0., 0., 0., 0. ]
      - [ 0., 0., 0., 0., 0., 0., 0., 0., 229., 255., 255., 250., 0., 0.,
          0., 0., 0., 0., 0., 0., 0., 0., 0., 0., 0., 0., 0., 0., 255.,
          255., 255., 255., 0., 0., 0., 0., 0., 0., 0., 0., 0., 0., 0.,
          0., 0., 0., 0., 0., 255., 255., 255., 255., 0., 0., 0., 0., 0.,
          0., 0., 0., 0., 0., 0., 0., 0., 0., 0., 0., 255., 255., 255.,
          255., 0., 0., 0., 0., 0., 0., 0., 0., 0., 0., 0., 0., 0., 0.,
          0., 0., 255., 255., 255., 255., 0., 0., 0., 0., 0., 0., 0., 0.,
          0., 0., 0., 0., 0., 0., 0., 0., 255., 255., 255., 255., 0., 0.,
          0., 0., 0., 0., 0., 0., 0., 0., 0., 0., 0., 0., 0., 0., 255.,
          255., 255., 255., 0., 0., 0., 0., 0., 0., 0., 0., 0., 0., 0.,
          0., 0., 0., 0., 0., 255., 255., 255., 255., 0., 0., 0., 0., 0.,
          0., 0., 0., 255., 255., 255., 255., 255., 255., 255., 255.,
          255., 255., 255., 255., 255., 255., 255., 255., 255., 255.,
          255., 180., 255., 255., 255., 255., 255., 255., 255., 255.,
          255., 255., 255., 255., 255., 255., 255., 255., 255., 255.,
          255., 255., 255., 255., 255., 255., 255., 255., 255., 255.,
          255., 255., 255., 255., 255., 255., 255., 255., 255., 255.,
          255., 255., 4., 255., 255., 255., 255., 255., 255., 255., 255.,
          255., 255., 255., 255., 255., 255., 255., 255., 255., 255.,
          180., 0., 0., 0., 0., 0., 0., 0., 0., 255., 255., 255., 255.,
          0., 0., 0., 0., 0., 0., 0., 0., 0., 0., 0., 0., 0., 0., 0., 0.,
          255., 255., 255., 255., 0., 0., 0., 0., 0., 0., 0., 0., 0., 0.,
          0., 0., 0., 0., 0., 0., 255., 255., 255., 255., 0., 0., 0., 0.,
          0., 0., 0., 0., 0., 0., 0., 0., 0., 0., 0., 0., 255., 255.,
          255., 255., 0., 0., 0., 0., 0., 0., 0., 0., 0., 0., 0., 0., 0.,
          0., 0., 0., 255., 255., 255., 255., 0., 0., 0., 0., 0., 0., 0.,
          0., 0., 0., 0., 0., 0., 0., 0., 0., 255., 255., 255., 255., 0.,
          0., 0., 0., 0., 0., 0., 0., 0., 0., 0., 0., 0., 0., 0., 0.,
          255., 255., 255., 255., 0., 0., 0., 0., 0., 0., 0., 0., 0., 0.,
          0., 0., 0., 0., 0., 0., 229., 255., 255., 229., 0., 0., 0., 0.,
          0., 0., 0., 0. ]
      - [ 0., 76., 255., 255., 255., 255., 255., 255., 255., 255., 255.,
          255., 255., 255., 255., 255., 255., 255., 76., 0., 8., 134.,
          255., 255., 255., 255., 255., 255., 255., 255., 255., 255.,
          255., 255., 255., 255., 255., 255., 134., 8., 22., 233., 255.,
          255., 255., 255., 255., 255., 255., 255., 255., 255., 255.,
          255., 255., 255., 255., 255., 233., 22., 123., 255., 255.,
          255., 255., 255., 255., 255., 255., 255., 255., 255., 255.,
          255., 255., 255., 255., 255., 255., 123., 249., 255., 255.,
          255., 255., 255., 255., 255., 255., 255., 255., 255., 255.,
          255., 255., 255., 255., 255., 255., 249., 255., 255., 255.,
          255., 255., 255., 255., 255., 255., 255., 255., 255., 255.,
          255., 255., 255., 255., 255., 255., 255., 255., 255., 255.,
          255., 255., 255., 255., 255., 255., 255., 255., 255., 255.,
          255., 255., 255., 255., 255., 255., 255., 255., 255., 255.,
          255., 255., 255., 255., 255., 255., 255., 255., 255., 255.,
          255., 255., 255., 255., 255., 255., 255., 255., 255., 255.,
          255., 255., 255., 255., 255., 255., 255., 255., 255., 255.,
          255., 255., 255., 255., 255., 255., 255., 255., 255., 255.,
          255., 255., 255., 255., 255., 255., 255., 255., 255., 255.,
          255., 255., 255., 255., 255., 255., 255., 255., 255., 255.,
          255., 255., 255., 255., 255., 255., 255., 255., 255., 255.,
          255., 255., 255., 255., 255., 255., 255., 255., 255., 255.,
          255., 255., 255., 255., 255., 255., 255., 255., 255., 255.,
          255., 255., 255., 255., 255., 255., 255., 255., 255., 255.,
          255., 255., 255., 255., 255., 255., 255., 255., 255., 255.,
          255., 255., 255., 255., 255., 255., 255., 255., 255., 255.,
          255., 255., 255., 255., 255., 255., 255., 255., 255., 255.,
          255., 255., 255., 255., 255., 255., 255., 255., 255., 255.,
          255., 255., 255., 255., 255., 255., 255., 255., 255., 255.,
          255., 255., 255., 255., 255., 255., 255., 249., 255., 255.,
          255., 255., 255., 255., 255., 255., 255., 255., 255., 255.,
          255., 255., 255., 255., 255., 255., 255., 123., 255., 255.,
          255., 255., 255., 255., 255., 255., 255., 255., 255., 255.,
          255., 255., 255., 255., 255., 255., 255., 22., 233., 255.,
          255., 255., 255., 255., 255., 255., 255., 255., 255., 255.,
          255., 255., 255., 255., 255., 233., 223., 8., 134., 255., 255.,
          255., 255., 255., 255., 255., 255., 255., 255., 255., 255.,
          255., 255., 255., 255., 134., 83., 0., 76., 255., 255., 255.,
          255., 255., 255., 255., 255., 255., 255., 255., 255., 255.,
          255., 255., 255., 76., 0. ]
      - [ 0., 0., 0., 0., 0., 0., 0., 0., 203., 255., 255., 203., 0., 0.,
          0., 0., 0., 0., 0., 0., 0., 0., 0., 0., 0., 0., 0., 0., 255.,
          255., 255., 255., 0., 0., 0., 0., 0., 0., 0., 0., 0., 0., 0.,
          0., 0., 0., 0., 0., 255., 255., 255., 255., 0., 0., 0., 0., 0.,
          0., 0., 0., 0., 0., 0., 0., 0., 0., 0., 0., 255., 255., 255.,
          255., 0., 0., 0., 0., 0., 0., 0., 0., 0., 0., 0., 0., 0., 0.,
          0., 0., 255., 255., 255., 255., 0., 0., 0., 0., 0., 0., 0., 0.,
          0., 0., 0., 0., 0., 0., 0., 0., 255., 255., 255., 255., 0., 0.,
          0., 0., 0., 0., 0., 0., 192., 255., 255., 255., 26., 1., 0.,
          0., 255., 255., 255., 255., 0., 0., 26., 135., 255., 255.,
          255., 19., 255., 255., 255., 255., 255., 255., 255., 128.,
          255., 255., 255., 255., 128., 255., 255., 255., 255., 255.,
          255., 185., 255., 255., 255., 255., 255., 255., 255., 255.,
          255., 255., 255., 255., 255., 255., 255., 255., 255., 255.,
          255., 255., 234., 255., 255., 255., 255., 255., 255., 255.,
          255., 255., 255., 255., 255., 255., 255., 255., 255., 255.,
          255., 129., 0., 76., 255., 255., 255., 255., 255., 255., 255.,
          255., 255., 255., 255., 255., 255., 255., 255., 188., 76., 0.,
          0., 0., 0., 0., 120., 229., 255., 255., 255., 255., 255., 255.,
          255., 255., 229., 0., 0., 0., 0., 0., 0., 0., 0., 0., 0., 0.,
          255., 255., 255., 255., 255., 255., 255., 255., 0., 0., 0., 0.,
          0., 0., 0., 0., 0., 0., 0., 254., 255., 255., 255., 255., 255.,
          255., 255., 255., 224., 0., 0., 0., 0., 0., 0., 0., 0., 0.,
          170., 255., 255., 255., 255., 255., 255., 255., 255., 255.,
          255., 40., 0., 0., 0., 0., 0., 0., 0., 19., 255., 255., 255.,
          255., 255., 57., 116., 255., 255., 255., 255., 255., 13., 0.,
          0., 0., 0., 0., 0., 255., 255., 255., 255., 255., 155., 0., 0.,
          246., 255., 255., 255., 255., 255., 0., 0., 0., 0., 0., 0.,
          255., 255., 255., 255., 255., 0., 0., 0., 0., 255., 255., 255.,
          255., 255., 0., 0., 0., 0., 0., 0., 255., 255., 255., 255., 3.,
          0., 0., 0., 0., 54., 255., 255., 255., 255., 0., 0., 0., 0.,
          0., 0., 184., 255., 255., 103., 0., 0., 0., 0., 0., 0., 222.,
          255., 255., 184., 0., 0., 0. ]
   decision_functions:
      -
         sv_count: 2
         rho: 0.
         alpha: [ 1., -1. ]
         index: [ 0, 1 ]
      -
         sv_count: 2
         rho: 0.
         alpha: [ 1., -1. ]
         index: [ 0, 2 ]
      -
         sv_count: 2
         rho: 0.
         alpha: [ 1., -1. ]
         index: [ 0, 3 ]
      -
         sv_count: 2
         rho: 0.
         alpha: [ 1., -1. ]
         index: [ 0, 4 ]
      -
         sv_count: 2
         rho: 0.
         alpha: [ 1., -1. ]
         index: [ 0, 5 ]
      -
         sv_count: 2
         rho: 0.
         alpha: [ 1., -1. ]
         index: [ 0, 6 ]
      -
         sv_count: 2
         rho: 0.
         alpha: [ 1., -1. ]
         index: [ 0, 7 ]
      -
         sv_count: 2
         rho: 0.
         alpha: [ 1., -1. ]
         index: [ 0, 8 ]
      -
         sv_count: 2
         rho: 0.
         alpha: [ 1., -1. ]
         index: [ 0, 9 ]
      -
         sv_count: 2
         rho: 0.
         alpha: [ 1., -1. ]
         index: [ 0, 10 ]
      -
         sv_count: 2
         rho: 0.
         alpha: [ 1., -1. ]
         index: [ 0, 11 ]
      -
         sv_count: 2
         rho: 0.
         alpha: [ 1., -1. ]
         index: [ 0, 12 ]
      -
         sv_count: 2
         rho: 0.
         alpha: [ 1., -1. ]
         index: [ 1, 2 ]
      -
         sv_count: 2
         rho: 0.
         alpha: [ 1., -1. ]
         index: [ 1, 3 ]
      -
         sv_count: 2
         rho: 0.
         alpha: [ 1., -1. ]
         index: [ 1, 4 ]
      -
         sv_count: 2
         rho: 0.
         alpha: [ 1., -1. ]
         index: [ 1, 5 ]
      -
         sv_count: 2
         rho: 0.
         alpha: [ 1., -1. ]
         index: [ 1, 6 ]
      -
         sv_count: 2
         rho: 0.
         alpha: [ 1., -1. ]
         index: [ 1, 7 ]
      -
         sv_count: 2
         rho: 0.
         alpha: [ 1., -1. ]
         index: [ 1, 8 ]
      -
         sv_count: 2
         rho: 0.
         alpha: [ 1., -1. ]
         index: [ 1, 9 ]
      -
         sv_count: 2
         rho: 0.
         alpha: [ 1., -1. ]
         index: [ 1, 10 ]
      -
         sv_count: 2
         rho: 0.
         alpha: [ 1., -1. ]
         index: [ 1, 11 ]
      -
         sv_count: 2
         rho: 0.
         alpha: [ 1., -1. ]
         index: [ 1, 12 ]
      -
         sv_count: 2
         rho: 0.
         alpha: [ 1., -1. ]
         index: [ 2, 3 ]
      -
         sv_count: 2
         rho: 0.
         alpha: [ 1., -1. ]
         index: [ 2, 4 ]
      -
         sv_count: 2
         rho: 0.
         alpha: [ 1., -1. ]
         index: [ 2, 5 ]
      -
         sv_count: 2
         rho: 0.
         alpha: [ 1., -1. ]
         index: [ 2, 6 ]
      -
         sv_count: 2
         rho: 0.
         alpha: [ 1., -1. ]
         index: [ 2, 7 ]
      -
         sv_count: 2
         rho: 0.
         alpha: [ 1., -1. ]
         index: [ 2, 8 ]
      -
         sv_count: 2
         rho: 0.
         alpha: [ 1., -1. ]
         index: [ 2, 9 ]
      -
         sv_count: 2
         rho: 0.
         alpha: [ 1., -1. ]
         index: [ 2, 10 ]
      -
         sv_count: 2
         rho: 0.
         alpha: [ 1., -1. ]
         index: [ 2, 11 ]
      -
         sv_count: 2
         rho: 0.
         alpha: [ 1., -1. ]
         index: [ 2, 12 ]
      -
         sv_count: 2
         rho: 0.
         alpha: [ 1., -1. ]
         index: [ 3, 4 ]
      -
         sv_count: 2
         rho: 0.
         alpha: [ 1., -1. ]
         index: [ 3, 5 ]
      -
         sv_count: 2
         rho: 0.
         alpha: [ 1., -1. ]
         index: [ 3, 6 ]
      -
         sv_count: 2
         rho: 0.
         alpha: [ 1., -1. ]
         index: [ 3, 7 ]
      -
         sv_count: 2
         rho: 0.
         alpha: [ 1., -1. ]
         index: [ 3, 8 ]
      -
         sv_count: 2
         rho: 0.
         alpha: [ 1., -1. ]
         index: [ 3, 9 ]
      -
         sv_count: 2
         rho: 0.
         alpha: [ 1., -1. ]
         index: [ 3, 10 ]
      -
         sv_count: 2
         rho: 0.
         alpha: [ 1., -1. ]
         index: [ 3, 11 ]
      -
         sv_count: 2
         rho: 0.
         alpha: [ 1., -1. ]
         index: [ 3, 12 ]
      -
         sv_count: 2
         rho: 0.
         alpha: [ 1., -1. ]
         index: [ 4, 5 ]
      -
         sv_count: 2
         rho: 0.
         alpha: [ 1., -1. ]
         index: [ 4, 6 ]
      -
         sv_count: 2
         rho: 0.
         alpha: [ 1., -1. ]
         index: [ 4, 7 ]
      -
         sv_count: 2
         rho: 0.
         alpha: [ 1., -1. ]
         index: [ 4, 8 ]
      -
         sv_count: 2
         rho: 0.
         alpha: [ 1., -1. ]
         index: [ 4, 9 ]
      -
         sv_count: 2
         rho: 0.
         alpha: [ 1., -1. ]
         index: [ 4, 10 ]
      -
         sv_count: 2
         rho: 0.
         alpha: [ 1., -1. ]
         index: [ 4, 11 ]
      -
         sv_count: 2
         rho: 0.
         alpha: [ 1., -1. ]
         index: [ 4, 12 ]
      -
         sv_count: 2
         rho: 0.
         alpha: [ 1., -1. ]
         index: [ 5, 6 ]
      -
         sv_count: 2
         rho: 0.
         alpha: [ 1., -1. ]
         index: [ 5, 7 ]
      -
         sv_count: 2
         rho: 0.
         alpha: [ 1., -1. ]
         index: [ 5, 8 ]
      -
         sv_count: 2
         rho: 0.
         alpha: [ 1., -1. ]
         index: [ 5, 9 ]
      -
         sv_count: 2
         rho: 0.
         alpha: [ 1., -1. ]
         index: [ 5, 10 ]
      -
         sv_count: 2
         rho: 0.
         alpha: [ 1., -1. ]
         index: [ 5, 11 ]
      -
         sv_count: 2
         rho: 0.
         alpha: [ 1., -1. ]
         index: [ 5, 12 ]
      -
         sv_count: 2
         rho: 0.
         alpha: [ 1., -1. ]
         index: [ 6, 7 ]
      -
         sv_count: 2
         rho: 0.
         alpha: [ 1., -1. ]
         index: [ 6, 8 ]
      -
         sv_count: 2
         rho: 0.
         alpha: [ 1., -1. ]
         index: [ 6, 9 ]
      -
         sv_count: 2
         rho: 0.
         alpha: [ 1., -1. ]
         index: [ 6, 10 ]
      -
         sv_count: 2
         rho: 0.
         alpha: [ 1., -1. ]
         index: [ 6, 11 ]
      -
         sv_count: 2
         rho: 0.
         alpha: [ 1., -1. ]
         index: [ 6, 12 ]
      -
         sv_count: 2
         rho: 0.
         alpha: [ 1., -1. ]
         index: [ 7, 8 ]
      -
         sv_count: 2
         rho: 0.
         alpha: [ 1., -1. ]
         index: [ 7, 9 ]
      -
         sv_count: 2
         rho: 0.
         alpha: [ 1., -1. ]
         index: [ 7, 10 ]
      -
         sv_count: 2
         rho: 0.
         alpha: [ 1., -1. ]
         index: [ 7, 11 ]
      -
         sv_count: 2
         rho: 0.
         alpha: [ 1., -1. ]
         index: [ 7, 12 ]
      -
         sv_count: 2
         rho: 0.
         alpha: [ 1., -1. ]
         index: [ 8, 9 ]
      -
         sv_count: 2
         rho: 0.
         alpha: [ 1., -1. ]
         index: [ 8, 10 ]
      -
         sv_count: 2
         rho: 0.
         alpha: [ 1., -1. ]
         index: [ 8, 11 ]
      -
         sv_count: 2
         rho: 0.
         alpha: [ 1., -1. ]
         index: [ 8, 12 ]
      -
         sv_count: 2
         rho: 0.
         alpha: [ 1., -1. ]
         index: [ 9, 10 ]
      -
         sv_count: 2
         rho: 0.
         alpha: [ 1., -1. ]
         index: [ 9, 11 ]
      -
         sv_count: 2
         rho: 0.
         alpha: [ 1., -1. ]
         index: [ 9, 12 ]
      -
         sv_count: 2
         rho: 0.
         alpha: [ 1., -1. ]
         index: [ 10, 11 ]
      -
         sv_count: 2
         rho: 0.
         alpha: [ 1., -1. ]
         index: [ 10, 12 ]
      -
         sv_count: 2
         rho: 0.
         alpha: [ 1., -1. ]
         index: [ 11, 12 ]
